4.958982200284677011e-02
-7.177073599523978165e-02
-9.814161190935849488e-02
-1.309190137995887848e-01
-3.357209492620176761e-01
5.046389959341734954e-02
-1.190257234139250470e-02
6.299866880025477289e-02
1.330022117760761881e-02
9.252039733546602029e-02
-2.050865772547316723e-02
5.614400996343864997e-02
-1.870785297343492345e-02
-8.042235603845548225e-03
6.634485536936815531e-02
5.556570713117831017e-02
-1.947884121143961256e-01
1.079244202720934243e-01
2.205847202120830505e-02
1.540220118450919690e-02
-7.803656228813786455e-02
-1.286140312926919438e-01
-6.654168258814728565e-02
-1.235549489543019469e-03
-8.290465060092643002e-02
-3.857786542402930063e-02
9.188368690061415878e-02
-6.665966330397853079e-02
4.564553596885961850e-02
-7.469394714994945228e-02
-1.369081659337696710e-01
5.529356376143362839e-02
-1.890702696186287099e-02
5.354567170838583912e-02
-5.589859884205259331e-03
2.712141038468302706e-02
-1.452851539094673905e-01
2.469033906335229775e-02
1.163191627198002370e-01
1.474796970346297920e-01
2.608345525851645322e-02
-1.073867136281044798e-01
6.065952286352321171e-02
2.903556912300909315e-02
-7.283172636401065436e-02
-8.116817981432469797e-02
4.390923256240637784e-03
5.549598454223965416e-02
-3.286812806909270024e-02
1.379202868515330693e-01
-1.251530572635183372e-02
-6.467025320190038229e-02
-3.747242930142363065e-02
-1.827061075459868178e-01
-1.040438030218268084e-01
7.868385884790907170e-02
-5.617235699628708029e-02
-3.377205506038380434e-02
2.035326264256163142e-01
-3.619390972511035004e-02
4.002998695067667284e-02
9.884223849884708757e-02
6.691987033284300945e-02
-6.016731354481963390e-02
-6.790621395786645975e-02
1.009240418791316068e-01
-1.662354149501628076e-01
-7.063079832260132918e-02
-4.924330151353010360e-02
2.165635936885440538e-02
-5.595734665723691229e-03
4.265458014107528090e-02
1.153566049526540543e-01
1.198736937243421487e-03
-1.078470956836896227e-01
-2.233544295019928294e-01
-6.478985924425879200e-03
-6.558028857812596424e-02
2.741403492769608694e-02
7.588922896706837284e-02
4.339236564148740705e-02
1.251157519009352681e-01
-2.484314555503931710e-02
-7.161468561935320498e-02
-9.765465295504329206e-04
1.396178358452262180e-01
9.548402046540195587e-02
4.918846596936846116e-02
-6.789656079188523263e-02
1.839081254469438209e-01
-8.363462468779442327e-02
-4.077844094659240776e-02
-1.524639970255269733e-02
-9.928844572347525488e-02
1.237663172690168373e-01
2.847301824453736530e-02
-1.404011404103481520e-01
8.520653422551383027e-02
2.831383168937245606e-02
-6.498975556443677137e-02
-4.083670131871988684e-02
-3.905689850056994622e-02
1.386922753380200601e-01
1.780520167229480977e-01
7.860259127979589422e-02
-1.807747349405202930e-01
-4.378606404451822892e-03
1.111816869111924011e-01
4.548820190955765730e-02
8.302241402934046333e-02
-6.244741140357937259e-02
-8.797963238575956524e-02
1.183258864619678684e-02
9.493894626850366003e-02
-1.193954858700146428e-02
6.578339532302021619e-02
-1.687714090176234971e-01
-1.621464671796515322e-01
-2.826536800414445466e-02
-1.295558322156482312e-01
-6.522829152060254099e-02
-5.868056053709283515e-02
-7.624304593694478105e-02
5.532998225801030734e-02
1.274075521833910596e-01
-1.128035024986476786e-01
1.190818910726024610e-01
-8.277958856759784489e-02
1.112886808965645041e-01
-5.079776991669884834e-02
6.905281361875555135e-02
8.240647381337415020e-03
7.809559984397505816e-02
-6.775679638310005970e-02
6.941611155745973372e-02
4.727538190164831677e-02
-1.537679575334582362e-02
2.141031423703758027e-02
-9.596578490971907627e-02
6.633887204636611246e-02
-3.312742301834731978e-02
9.171521735152329824e-02
-1.475457129411169299e-01
1.542991231135319996e-01
7.343573361058396143e-02
9.248901917454808996e-02
2.707563318977203662e-02
4.546019969856057719e-02
-6.705605426256759649e-02
3.970634613031024523e-02
4.777973732542150492e-02
-9.709467202387363216e-03
1.504331667312882037e-01
7.282738251363426139e-03
-8.828346505519733822e-02
-9.896653534994764856e-02
-4.486358550950824212e-03
-2.424397507484386816e-02
-5.236047265206594109e-02
-1.933631413954152167e-01
-3.186849312252187233e-02
-1.395375696577362823e-01
-5.359814235934544542e-03
-3.676175503813334383e-02
7.560702991666430617e-02
1.048905940706252454e-01
-7.963017577588218932e-02
-1.215471797214412453e-01
1.366552562475184356e-02
-5.932080500951972951e-02
-3.598851636420864059e-02
-1.383200806507119685e-01
-1.038630003043399253e-01
2.907023603808098211e-01
2.087354522735855589e-02
7.352376689692366463e-03
5.857267476537458828e-02
-1.432683418002580755e-01
1.832822615094874263e-02
1.805524873350170534e-01
7.720483139596764910e-02
-1.118182864571977686e-01
8.372423350468653769e-02
-1.348691797933218028e-01
1.244970462660520277e-01
4.722263445200650112e-02
2.322587946961767735e-01
-1.575724587247200881e-01
1.225759324814605783e-01
-4.197298781029890069e-02
6.900736108193847307e-02
-3.079563477694983314e-02
1.541240278766341319e-03
1.971956216829263975e-02
-1.495420544038430499e-01
6.033078963400592687e-02
9.965829452583052639e-02
3.751937955846625268e-03
-6.217638935677676643e-02
-1.609695678502103822e-01
1.342982091060401506e-01
